function [y1] = myNeuralNetworkFunction10(x1)
%MYNEURALNETWORKFUNCTION neural network simulation function.
%
% Auto-generated by MATLAB, 05-Jul-2022 14:38:54.
%
% [y1] = myNeuralNetworkFunction(x1) takes these arguments:
%   x = 1xQ matrix, input #1
% and returns:
%   y = 1xQ matrix, output #1
% where Q is the number of samples.

%#ok<*RPMT0>

% ===== NEURAL NETWORK CONSTANTS =====

% Input 1
x1_step1.xoffset = -40;
x1_step1.gain = 0.0333333333333333;
x1_step1.ymin = -1;

% Layer 1
b1 = [13.304050371223985039;9.5782767310180876308;5.401324921169538662;-2.1458557046488406783;0.36134708432598122707;0.70719382537175345949;-1.792155277262934554;-3.1677515103157918297;-5.4632974756750627421;8.1768570429118945242];
IW1_1 = [-14.582624836270367652;-14.082041930130241525;-11.039742535321231287;7.4257255440143836722;-5.8385615820306480117;3.445149067123717046;-4.2708362114146165567;-5.0569498899442768547;-6.7615442451317200323;8.4130027327464507181];

% Layer 2
b2 = 0.018335208499010408056;
LW2_1 = [2.3151088661754965961e-05 7.1738530884880283203e-05 0.00018828566347824074912 -0.00075145183307287304053 0.0041031785925525754433 -0.68802599174043765906 0.1722467483538481503 0.089958148190913161946 0.037382803246699930488 -0.025933392806635095079];

% Output 1
y1_step1.ymin = -1;
y1_step1.gain = 4.23066136842531;
y1_step1.xoffset = 8.43536485831131e-05;

% ===== SIMULATION ========

% Dimensions
Q = size(x1,2); % samples

% Input 1
xp1 = mapminmax_apply(x1,x1_step1); %normalize by the standard deviation.

% Layer 1
a1 = tansig_apply(repmat(b1,1,Q) + IW1_1*xp1);

% Layer 2
a2 = repmat(b2,1,Q) + LW2_1*a1;

% Output 1
y1 = mapminmax_reverse(a2,y1_step1);
end

% ===== MODULE FUNCTIONS ========

% Map Minimum and Maximum Input Processing Function
function y = mapminmax_apply(x,settings)
y = bsxfun(@minus,x,settings.xoffset);
y = bsxfun(@times,y,settings.gain);
y = bsxfun(@plus,y,settings.ymin);
end

% Sigmoid Symmetric Transfer Function
function a = tansig_apply(n,~)
a = 2 ./ (1 + exp(-2*n)) - 1;
end

% Map Minimum and Maximum Output Reverse-Processing Function
function x = mapminmax_reverse(y,settings)
x = bsxfun(@minus,y,settings.ymin);
x = bsxfun(@rdivide,x,settings.gain);
x = bsxfun(@plus,x,settings.xoffset);
end
